genomestart 1
trait 1 0.1 0 0 0 0 0 0 0
trait 2 0.1 0 0 0 0 0 0 0
trait 3 0.1 0 0 0 0 0 0 0
trait 4 0.1 0 0 0 0 0 0 0
trait 5 0.1 0 0 0 0 0 0 0
trait 6 0.1 0 0 0 0 0 0 0
trait 7 0.1 0 0 0 0 0 0 0
trait 8 0.1 0 0 0 0 0 0 0
trait 9 0.1 0 0 0 0 0 0 0
trait 10 0.2 0 0 0 0 0 0 0
trait 11 0.2 0 0 0 0 0 0 0
trait 12 0.2 0 0 0 0 0 0 0
trait 13 0.2 0 0 0 0 0 0 0
trait 14 0.2 0 0 0 0 0 0 0
trait 15 0.2 0 0 0 0 0 0 0
trait 16 0.2 0 0 0 0 0 0 0
trait 17 0.2 0 0 0 0 0 0 0
trait 18 0.2 0 0 0 0 0 0 0
trait 19 0.2 0 0 0 0 0 0 0
trait 20 0.2 0 0 0 0 0 0 0
trait 21 0.2 0 0 0 0 0 0 0
trait 22 0.2 0 0 0 0 0 0 0
trait 23 0.2 0 0 0 0 0 0 0
trait 24 0.2 0 0 0 0 0 0 0
trait 25 0.3 0 0 0 0 0 0 0
trait 26 0.3 0 0 0 0 0 0 0
trait 27 0.3 0 0 0 0 0 0 0
trait 28 0.3 0 0 0 0 0 0 0
trait 29 0.3 0 0 0 0 0 0 0
trait 30 0.3 0 0 0 0 0 0 0
trait 31 0.3 0 0 0 0 0 0 0
trait 32 0.3 0 0 0 0 0 0 0
trait 33 0.3 0 0 0 0 0 0 0
trait 34 0.3 0 0 0 0 0 0 0
trait 35 0.3 0 0 0 0 0 0 0
trait 36 0.3 0 0 0 0 0 0 0
node 1 0 1 1
node 2 0 1 1
node 3 0 1 1
node 4 0 1 1
node 5 0 1 1
node 6 0 1 1
node 7 0 1 1
node 8 0 1 1
node 9 0 0 1
node 10 0 0 1
node 11 0 0 1  
node 12 0 0 1
node 13 0 0 2
node 14 0 0 2
node 15 0 0 2
gene 1 1 13 0.0 0 1 0 1
gene 2 2 13 0.0 0 2 0 1
gene 3 3 13 0.0 0 3 0 1
gene 4 4 13 0.0 0 4 0 1
gene 5 5 13 0.0 0 5 0 1
gene 6 6 13 0.0 0 6 0 1
gene 7 7 13 0.0 0 7 0 1
gene 8 8 13 0.0 0 8 0 1
gene 9 9 13 0.0 0 9 0 1
gene 10 10 13 0.0 0 10 0 1
gene 11 11 13 0.0 0 11 0 1
gene 12 12 13 0.0 0 12 0 1
gene 13 1 14 0.0 0 1 0 1
gene 14 2 14 0.0 0 2 0 1
gene 15 3 14 0.0 0 3 0 1
gene 16 4 14 0.0 0 4 0 1
gene 17 5 14 0.0 0 5 0 1
gene 18 6 14 0.0 0 6 0 1
gene 19 7 14 0.0 0 7 0 1
gene 20 8 14 0.0 0 8 0 1
gene 21 9 14 0.0 0 9 0 1
gene 22 10 14 0.0 0 10 0 1
gene 23 11 14 0.0 0 11 0 1
gene 24 12 14 0.0 0 12 0 1
gene 25 1 15 0.0 0 1 0 1
gene 26 2 15 0.0 0 2 0 1
gene 27 3 15 0.0 0 3 0 1
gene 28 4 15 0.0 0 4 0 1
gene 29 5 15 0.0 0 5 0 1
gene 30 6 15 0.0 0 6 0 1
gene 31 7 15 0.0 0 7 0 1
gene 32 8 15 0.0 0 8 0 1
gene 33 9 15 0.0 0 9 0 1
gene 34 10 15 0.0 0 10 0 1
gene 35 11 15 0.0 0 11 0 1
gene 36 12 15 0.0 0 12 0 1
genomeend 1
