genomestart 52
trait 1 0.1 0 0 0 0 0 0 0 
trait 2 0.396372 0.0415226 0 0 0.159105 0 0 0 
trait 3 0.3 0 0 0 0 0 0 0 
trait 4 0.1 0 0 0 0 0 0 0 
trait 5 0.2 0 0 0 0 0 0 0 
trait 6 0.3 0 0 0 0 0 0 0 
trait 7 0.1 0 0 0 0 0 0 0 
trait 8 0.2 0 0 0 0 0 0 0 
trait 9 0.3 0 0 0 0 0 0 0 
trait 10 0.1 0 0 0 0 0 0 0 
trait 11 0.2 0 0 0 0 0 0 0 
trait 12 0.3 0 0 0 0 0 0 0 
trait 13 0.1 0 0 0 0 0 0 0 
trait 14 0.2 0 0 0 0 0 0 0 
trait 15 0.3 0 0 0 0 0 0 0 
trait 16 0.1 0 0 0 0 0 0 0 
node 1 7 1 1
node 2 8 1 1
node 3 7 1 1
node 4 7 1 1
node 5 7 1 1
node 6 10 1 1
node 7 5 1 1
node 8 2 1 1
node 9 12 0 2
node 10 9 0 2
node 13 1 0 0
gene 3 1 9 1.405 0 1 1.405 1
gene 7 2 9 -0.568846 0 2 -0.568846 1
gene 16 3 9 -2.75604 0 3 -2.75604 1
gene 12 4 9 -0.947498 0 4 -0.947498 1
gene 13 5 9 1.30167 0 5 1.30167 1
gene 15 6 9 2.48005 0 6 2.48005 1
gene 6 7 9 2.7454 0 7 2.7454 1
gene 15 8 9 1.35972 0 8 1.35972 1
gene 6 1 10 1.78969 0 1 1.78969 0
gene 5 13 13 1.11000 0 13 1.11000 1
gene 12 2 10 -1.62793 0 2 -1.62793 1
gene 8 3 10 -2.66324 0 3 -2.66324 1
gene 11 4 10 0.714075 0 4 0.714075 1
gene 14 5 10 -0.46466 0 5 -0.46466 1
gene 3 6 10 -0.267898 0 6 -0.267898 1
gene 7 7 10 0.480736 0 7 0.480736 1
gene 1 8 10 1.93832 0 8 1.93832 1
gene 6 1 13 2.85359 0 15 2.85359 1
gene 6 13 10 2.82563 0 16 2.82563 1
gene 2 9 10 0.496565 0 23 0.496565 1
genomeend 52