/* Organism #2 Fitness: 13792 Error: 9208 */
genomestart 2
trait 1 0.152831 0.366712 0 0.189104 0 0 0 0 
trait 2 0.1 0 0 0 0 0 0 0 
trait 3 0.1 0 0 0 0 0 0 0 
trait 4 0.1 0 0 0 0 0 0 0 
trait 5 0.1 0 0 0.000674788 0 0 0.272912 0 
trait 6 0.1 0 0 0 0 0 0 0 
trait 7 0.1 0.0824245 0 0 0.0620922 0.0526737 0 0.070586 
trait 8 0.1 0 0 0 0 0 0 0 
trait 9 0.1 0 0 0 0 0 0 0 
trait 10 0.2 0.0218054 0 0.0293428 0 0.0226681 0 0 
trait 11 0.2 0 0 0 0 0 0 0 
trait 12 0.2 0 0 0 0 0 0 0 
trait 13 0.2 0 0 0 0 0 0 0 
trait 14 0.2 0 0 0 0 0 0 0 
trait 15 0.2 0 0 0 0 0 0 0 
trait 16 0.2 0 0 0 0 0 0 0 
trait 17 0.2 0 0 0 0 0 0 0 
trait 18 0.2 0 0 0 0 0 0 0 
trait 19 0.225522 0 0 0 0 0 0 0 
trait 20 0.2 0 0 0 0 0 0 0 
trait 21 0.2 0 0 0 0 0 0 0 
trait 22 0.2 0 0 0 0 0 0.00297347 0 
trait 23 0.2 0 0 0 0 0 0 0 
trait 24 0.2 0 0 0 0 0 0 0 
trait 25 0.3 0 0 0 0 0 0 0 
trait 26 0.3 0 0 0 0 0 0 0 
trait 27 0.3 0 0 0 0 0 0 0 
trait 28 0.3 0 0 0 0 0 0 0 
trait 29 0.3 0 0 0 0 0 0 0 
trait 30 0.3 0 0 0.186703 0 0.292273 0 0 
trait 31 0.3 0 0 0 0 0 0 0 
trait 32 0.3 0 0 0 0 0 0 0 
trait 33 0.3 0 0 0 0 0.221307 0 0 
trait 34 0.3 0 0 0 0 0 0 0 
trait 35 0.3 0 0 0 0 0 0 0 
trait 36 0.3 0 0 0 0 0 0 0 
node 1 23 1 1
node 2 15 1 1
node 3 13 1 1
node 4 13 1 1
node 5 31 1 1
node 6 11 1 1
node 7 22 1 1
node 8 5 1 1
node 9 9 0 1
node 10 32 0 1
node 11 20 0 1
node 12 1 0 1
node 13 31 0 2
node 14 13 0 2
node 15 3 0 2
gene 28 1 13 -7.508 0 1 -7.508 1
gene 17 2 13 0.479528 0 2 0.479528 1
gene 9 3 13 0.137985 0 3 0.137985 1
gene 25 4 13 -4.34228 0 4 -4.34228 1
gene 20 5 13 -1.94126 0 5 -1.94126 1
gene 36 6 13 2.8087 0 6 2.8087 1
gene 30 7 13 2.97401 0 7 2.97401 1
gene 35 8 13 0.620768 0 8 0.620768 1
gene 11 9 13 -0.0283138 0 9 -0.0283138 1
gene 22 10 13 3.55803 0 10 3.55803 1
gene 24 11 13 -0.88553 0 11 -0.88553 1
gene 33 12 13 3.52832 0 12 3.52832 1
gene 6 1 14 -4.2186 0 1 -4.2186 1
gene 30 2 14 -3.234 0 2 -3.234 1
gene 11 3 14 7.24824 0 3 7.24824 1
gene 2 4 14 3.23984 0 4 3.23984 1
gene 36 5 14 2.84822 0 5 2.84822 1
gene 26 6 14 0.320047 0 6 0.320047 1
gene 8 7 14 3.9836 0 7 3.9836 1
gene 1 8 14 -2.44319 0 8 -2.44319 0
gene 18 9 14 3.87406 0 9 3.87406 1
gene 15 10 14 -0.792645 0 10 -0.792645 1
gene 25 11 14 1.06693 0 11 1.06693 1
gene 36 12 14 0.718302 0 12 0.718302 1
gene 18 1 15 -0.214975 0 1 -0.214975 1
gene 26 2 15 0.877546 0 2 0.877546 1
gene 16 3 15 3.18747 0 3 3.18747 1
gene 17 4 15 1.10309 0 4 1.10309 1
gene 3 5 15 1.85024 0 5 1.85024 1
gene 23 6 15 -0.0897136 0 6 -0.0897136 1
gene 25 7 15 -1.28216 0 7 -1.28216 1
gene 24 8 15 -0.707058 0 8 -0.707058 1
gene 9 9 15 -2.17402 0 9 -2.17402 1
gene 12 10 15 3.17885 0 10 3.17885 1
gene 20 11 15 -2.18727 0 11 -2.18727 1
gene 1 12 15 -1.61403 0 12 -1.61403 1
gene 16 14 14 -2.86442 1 129 -2.86442 1
gene 14 11 10 0.316443 0 258 0.316443 1
gene 22 8 9 0.477489 0 477 0.477489 1
gene 20 10 9 0.81651 0 921 0.81651 1
gene 6 3 9 0.745593 0 1084 0.745593 1
gene 35 3 10 -1.37457 0 1326 -1.37457 1
gene 27 8 10 -1.12549 0 1712 -1.12549 1
gene 2 12 10 -0.140638 0 1790 -0.140638 1
gene 23 8 11 1.06653 0 2237 1.06653 1
gene 15 3 11 0.679634 0 2458 0.679634 1
gene 22 4 11 0.360212 0 2608 0.360212 1
genomeend 2